<?xml version="1.0"?>
<opencv_storage>
<cascade>
  <stageType>BOOST</stageType>
  <featureType>HAAR</featureType>
  <height>24</height>
  <width>24</width>
  <stageParams>
    <boostType>GAB</boostType>
    <minHitRate>9.9500000476837158e-01</minHitRate>
    <maxFalseAlarm>5.0000000000000000e-01</maxFalseAlarm>
    <weightTrimRate>9.4999998807907104e-01</weightTrimRate>
    <maxDepth>1</maxDepth>
    <maxWeakCount>100</maxWeakCount></stageParams>
  <featureParams>
    <maxCatCount>0</maxCatCount>
    <featSize>1</featSize>
    <mode>BASIC</mode></featureParams>
  <stageNum>12</stageNum>
  <stages>
    <!-- stage 0 -->
    <_>
      <maxWeakCount>5</maxWeakCount>
      <stageThreshold>-1.9661689996719360e+00</stageThreshold>
      <weakClassifiers>
        <_>
          <internalNodes>
            0 -1 6 -9.5887836068868637e-03</internalNodes>
          <leafValues>
            3.4375000000000000e-01 -8.7189292907714844e-01</leafValues></_>
        <_>
          <internalNodes>
            0 -1 11 -3.3174134790897369e-02</internalNodes>
          <leafValues>
            3.8653588294982910e-01 -7.6512867212295532e-01</leafValues></_>
        <_>
          <internalNodes>
            0 -1 39 -9.9193759262561798e-02</internalNodes>
          <leafValues>
            5.5299890041351318e-01 -5.8119297027587891e-01</leafValues></_>
        <_>
          <internalNodes>
            0 -1 58 6.5513059496879578e-02</internalNodes>
          <leafValues>
            -3.9541360735893250e-01 7.3083883523941040e-01</leafValues></_>
        <_>
          <internalNodes>
            0 -1 16 2.0422127097845078e-02</internalNodes>
          <leafValues>
            -3.4069254994392395e-01 6.4745914936065674e-01</leafValues></_></weakClassifiers></_>
    <!-- stage 1 -->
    <_>
      <maxWeakCount>8</maxWeakCount>
      <stageThreshold>-2.1714780330657959e+00</stageThreshold>
      <weakClassifiers>
        <_>
          <internalNodes>
            0 -1 65 1.8334405496716499e-02</internalNodes>
          <leafValues>
            -8.8932806253433228e-01 1.0204081982374191e-01</leafValues></_>
        <_>
          <internalNodes>
            0 -1 8 -2.4575453717261553e-03</internalNodes>
          <leafValues>
            3.2872042059898376e-01 -6.5937054157257080e-01</leafValues></_>
        <_>
          <internalNodes>
            0 -1 21 -1.7978693358600140e-03</internalNodes>
          <leafValues>
            3.2936766743659973e-01 -7.3354512453079224e-01</leafValues></_>
        <_>
          <internalNodes>
            0 -1 15 -3.9221169427037239e-03</internalNodes>
          <leafValues>
            -7.6081335544586182e-01 2.4668285250663757e-01</leafValues></_>
        <_>
          <internalNodes>
            0 -1 48 5.8052875101566315e-04</internalNodes>
          <leafValues>
            -5.9290498495101929e-01 4.9736067652702332e-01</leafValues></_>
        <_>
          <internalNodes>
            0 -1 1 -2.7564648538827896e-02</internalNodes>
          <leafValues>
            4.3835437297821045e-01 -5.0607526302337646e-01</leafValues></_>
        <_>
          <internalNodes>
            0 -1 29 -5.3033731877803802e-02</internalNodes>
          <leafValues>
            3.1293612718582153e-01 -7.3431229591369629e-01</leafValues></_>
        <_>
          <internalNodes>
            0 -1 17 1.5167031437158585e-02</internalNodes>
          <leafValues>
            -3.3886545896530151e-01 7.5294578075408936e-01</leafValues></_></weakClassifiers></_>
    <!-- stage 2 -->
    <_>
      <maxWeakCount>6</maxWeakCount>
      <stageThreshold>-1.3250228166580200e+00</stageThreshold>
      <weakClassifiers>
        <_>
          <internalNodes>
            0 -1 7 -2.0047202706336975e-02</internalNodes>
          <leafValues>
            1.7647059261798859e-01 -8.4891408681869507e-01</leafValues></_>
        <_>
          <internalNodes>
            0 -1 64 1.2571331113576889e-02</internalNodes>
          <leafValues>
            -6.2816280126571655e-01 3.1257930397987366e-01</leafValues></_>
        <_>
          <internalNodes>
            0 -1 61 6.1501777963712811e-05</internalNodes>
          <leafValues>
            -6.8861937522888184e-01 2.8982812166213989e-01</leafValues></_>
        <_>
          <internalNodes>
            0 -1 59 -2.3218755086418241e-04</internalNodes>
          <leafValues>
            -8.9035367965698242e-01 2.7478334307670593e-01</leafValues></_>
        <_>
          <internalNodes>
            0 -1 14 1.2719839578494430e-03</internalNodes>
          <leafValues>
            2.3077358305454254e-01 -9.2772376537322998e-01</leafValues></_>
        <_>
          <internalNodes>
            0 -1 3 4.4667486101388931e-02</internalNodes>
          <leafValues>
            -4.1893610358238220e-01 5.2941787242889404e-01</leafValues></_></weakClassifiers></_>
    <!-- stage 3 -->
    <_>
      <maxWeakCount>5</maxWeakCount>
      <stageThreshold>-1.8139843940734863e+00</stageThreshold>
      <weakClassifiers>
        <_>
          <internalNodes>
            0 -1 35 -1.4705527573823929e-02</internalNodes>
          <leafValues>
            1.5384615398943424e-02 -8.5263156890869141e-01</leafValues></_>
        <_>
          <internalNodes>
            0 -1 57 -6.3234686851501465e-02</internalNodes>
          <leafValues>
            8.6135141551494598e-02 -7.3745697736740112e-01</leafValues></_>
        <_>
          <internalNodes>
            0 -1 52 1.1205997318029404e-02</internalNodes>
          <leafValues>
            -5.0483196973800659e-01 4.4301685690879822e-01</leafValues></_>
        <_>
          <internalNodes>
            0 -1 54 3.3405134454369545e-03</internalNodes>
          <leafValues>
            2.4177165329456329e-01 -9.0273237228393555e-01</leafValues></_>
        <_>
          <internalNodes>
            0 -1 46 2.1210245322436094e-03</internalNodes>
          <leafValues>
            2.3581968247890472e-01 -9.7359776496887207e-01</leafValues></_></weakClassifiers></_>
    <!-- stage 4 -->
    <_>
      <maxWeakCount>6</maxWeakCount>
      <stageThreshold>-1.6948822736740112e+00</stageThreshold>
      <weakClassifiers>
        <_>
          <internalNodes>
            0 -1 34 -6.3331604003906250e-02</internalNodes>
          <leafValues>
            1.4893616735935211e-01 -8.4383821487426758e-01</leafValues></_>
        <_>
          <internalNodes>
            0 -1 28 -1.8322210013866425e-01</internalNodes>
          <leafValues>
            1.0008616745471954e-01 -7.2281223535537720e-01</leafValues></_>
        <_>
          <internalNodes>
            0 -1 60 -4.0263831615447998e-03</internalNodes>
          <leafValues>
            2.5641953945159912e-01 -6.5601778030395508e-01</leafValues></_>
        <_>
          <internalNodes>
            0 -1 56 1.2034703977406025e-03</internalNodes>
          <leafValues>
            -5.9719657897949219e-01 3.1888574361801147e-01</leafValues></_>
        <_>
          <internalNodes>
            0 -1 51 7.9159662127494812e-03</internalNodes>
          <leafValues>
            2.2236084938049316e-01 -9.7343474626541138e-01</leafValues></_>
        <_>
          <internalNodes>
            0 -1 10 -1.8874777480959892e-02</internalNodes>
          <leafValues>
            -8.3635908365249634e-01 1.5751640498638153e-01</leafValues></_></weakClassifiers></_>
    <!-- stage 5 -->
    <_>
      <maxWeakCount>7</maxWeakCount>
      <stageThreshold>-1.9161024093627930e+00</stageThreshold>
      <weakClassifiers>
        <_>
          <internalNodes>
            0 -1 67 6.0416487976908684e-03</internalNodes>
          <leafValues>
            -8.4976524114608765e-01 3.3333334326744080e-01</leafValues></_>
        <_>
          <internalNodes>
            0 -1 24 8.4501076489686966e-03</internalNodes>
          <leafValues>
            -7.2650420665740967e-01 4.8262432217597961e-02</leafValues></_>
        <_>
          <internalNodes>
            0 -1 20 -2.7829278260469437e-02</internalNodes>
          <leafValues>
            2.4806277453899384e-01 -7.0670711994171143e-01</leafValues></_>
        <_>
          <internalNodes>
            0 -1 41 -1.8557641655206680e-02</internalNodes>
          <leafValues>
            -1. 1.6546441614627838e-01</leafValues></_>
        <_>
          <internalNodes>
            0 -1 2 -1.2637553736567497e-02</internalNodes>
          <leafValues>
            4.1875317692756653e-01 -5.2407222986221313e-01</leafValues></_>
        <_>
          <internalNodes>
            0 -1 66 3.1811606604605913e-03</internalNodes>
          <leafValues>
            -4.6807107329368591e-01 4.8236235976219177e-01</leafValues></_>
        <_>
          <internalNodes>
            0 -1 47 1.5203412622213364e-03</internalNodes>
          <leafValues>
            2.5072768330574036e-01 -7.7366405725479126e-01</leafValues></_></weakClassifiers></_>
    <!-- stage 6 -->
    <_>
      <maxWeakCount>8</maxWeakCount>
      <stageThreshold>-1.7196779251098633e+00</stageThreshold>
      <weakClassifiers>
        <_>
          <internalNodes>
            0 -1 37 -1.8698140978813171e-02</internalNodes>
          <leafValues>
            7.4193549156188965e-01 -8.4615385532379150e-01</leafValues></_>
        <_>
          <internalNodes>
            0 -1 5 -3.9164517074823380e-03</internalNodes>
          <leafValues>
            5.8461105823516846e-01 -5.8739256858825684e-01</leafValues></_>
        <_>
          <internalNodes>
            0 -1 12 -3.4474808722734451e-02</internalNodes>
          <leafValues>
            3.6969685554504395e-01 -6.2602782249450684e-01</leafValues></_>
        <_>
          <internalNodes>
            0 -1 22 -3.6141346208751202e-03</internalNodes>
          <leafValues>
            3.2610943913459778e-01 -6.2835597991943359e-01</leafValues></_>
        <_>
          <internalNodes>
            0 -1 27 1.7663091421127319e-02</internalNodes>
          <leafValues>
            -2.7133944630622864e-01 8.7223201990127563e-01</leafValues></_>
        <_>
          <internalNodes>
            0 -1 31 3.0707050114870071e-02</internalNodes>
          <leafValues>
            3.3183589577674866e-01 -8.1676536798477173e-01</leafValues></_>
        <_>
          <internalNodes>
            0 -1 55 1.3100925087928772e-01</internalNodes>
          <leafValues>
            -3.8593664765357971e-01 6.5518915653228760e-01</leafValues></_>
        <_>
          <internalNodes>
            0 -1 49 4.4640335254371166e-03</internalNodes>
          <leafValues>
            -4.4657033681869507e-01 4.9210363626480103e-01</leafValues></_></weakClassifiers></_>
    <!-- stage 7 -->
    <_>
      <maxWeakCount>5</maxWeakCount>
      <stageThreshold>-1.2798994779586792e+00</stageThreshold>
      <weakClassifiers>
        <_>
          <internalNodes>
            0 -1 36 -2.1387666463851929e-02</internalNodes>
          <leafValues>
            1. -8.3486241102218628e-01</leafValues></_>
        <_>
          <internalNodes>
            0 -1 0 -2.3905262351036072e-02</internalNodes>
          <leafValues>
            2.3278434574604034e-01 -6.6042393445968628e-01</leafValues></_>
        <_>
          <internalNodes>
            0 -1 4 -2.8813867829740047e-03</internalNodes>
          <leafValues>
            -6.0814791917800903e-01 3.0002769827842712e-01</leafValues></_>
        <_>
          <internalNodes>
            0 -1 63 -5.3217442473396659e-04</internalNodes>
          <leafValues>
            3.2439067959785461e-01 -5.6986111402511597e-01</leafValues></_>
        <_>
          <internalNodes>
            0 -1 43 -9.1272503137588501e-02</internalNodes>
          <leafValues>
            5.0018763542175293e-01 -3.7048289179801941e-01</leafValues></_></weakClassifiers></_>
    <!-- stage 8 -->
    <_>
      <maxWeakCount>7</maxWeakCount>
      <stageThreshold>-2.0940544605255127e+00</stageThreshold>
      <weakClassifiers>
        <_>
          <internalNodes>
            0 -1 68 1.6430975869297981e-02</internalNodes>
          <leafValues>
            -8.3992642164230347e-01 1.</leafValues></_>
        <_>
          <internalNodes>
            0 -1 23 -1.0052209720015526e-02</internalNodes>
          <leafValues>
            3.7256368994712830e-01 -5.7587593793869019e-01</leafValues></_>
        <_>
          <internalNodes>
            0 -1 42 -3.7079438567161560e-02</internalNodes>
          <leafValues>
            -6.7269283533096313e-01 3.6984992027282715e-01</leafValues></_>
        <_>
          <internalNodes>
            0 -1 19 2.1719131618738174e-03</internalNodes>
          <leafValues>
            -3.0864411592483521e-01 6.8601912260055542e-01</leafValues></_>
        <_>
          <internalNodes>
            0 -1 62 3.3519583666929975e-05</internalNodes>
          <leafValues>
            -6.2766635417938232e-01 3.3951261639595032e-01</leafValues></_>
        <_>
          <internalNodes>
            0 -1 53 6.0084233991801739e-03</internalNodes>
          <leafValues>
            -3.6303701996803284e-01 5.9282267093658447e-01</leafValues></_>
        <_>
          <internalNodes>
            0 -1 45 -3.7216590717434883e-03</internalNodes>
          <leafValues>
            -9.4013136625289917e-01 2.5124552845954895e-01</leafValues></_></weakClassifiers></_>
    <!-- stage 9 -->
    <_>
      <maxWeakCount>5</maxWeakCount>
      <stageThreshold>-1.2394756078720093e+00</stageThreshold>
      <weakClassifiers>
        <_>
          <internalNodes>
            0 -1 44 -1.6122350469231606e-02</internalNodes>
          <leafValues>
            1. -8.4162062406539917e-01</leafValues></_>
        <_>
          <internalNodes>
            0 -1 13 -6.7227613180875778e-04</internalNodes>
          <leafValues>
            3.6425507068634033e-01 -7.0854413509368896e-01</leafValues></_>
        <_>
          <internalNodes>
            0 -1 30 3.2314972486346960e-04</internalNodes>
          <leafValues>
            -5.1047575473785400e-01 5.9770190715789795e-01</leafValues></_>
        <_>
          <internalNodes>
            0 -1 40 1.7595574259757996e-02</internalNodes>
          <leafValues>
            4.0399274230003357e-01 -6.9710201025009155e-01</leafValues></_>
        <_>
          <internalNodes>
            0 -1 32 2.1300669759511948e-03</internalNodes>
          <leafValues>
            4.4912332296371460e-01 -6.5562701225280762e-01</leafValues></_></weakClassifiers></_>
    <!-- stage 10 -->
    <_>
      <maxWeakCount>4</maxWeakCount>
      <stageThreshold>-1.6284993886947632e+00</stageThreshold>
      <weakClassifiers>
        <_>
          <internalNodes>
            0 -1 18 3.9384029805660248e-03</internalNodes>
          <leafValues>
            -8.9573460817337036e-01 1.</leafValues></_>
        <_>
          <internalNodes>
            0 -1 50 3.9934575557708740e-02</internalNodes>
          <leafValues>
            -7.4831563234329224e-01 1.</leafValues></_>
        <_>
          <internalNodes>
            0 -1 33 1.5828055329620838e-03</internalNodes>
          <leafValues>
            -6.2770038843154907e-01 5.7379716634750366e-01</leafValues></_>
        <_>
          <internalNodes>
            0 -1 38 7.2206452023237944e-04</internalNodes>
          <leafValues>
            -5.5824637413024902e-01 7.7483433485031128e-01</leafValues></_></weakClassifiers></_>
    <!-- stage 11 -->
    <_>
      <maxWeakCount>3</maxWeakCount>
      <stageThreshold>-8.6343663930892944e-01</stageThreshold>
      <weakClassifiers>
        <_>
          <internalNodes>
            0 -1 26 7.0371833862736821e-04</internalNodes>
          <leafValues>
            -9.5312500000000000e-01 1.</leafValues></_>
        <_>
          <internalNodes>
            0 -1 25 1.0853729327209294e-04</internalNodes>
          <leafValues>
            1. -9.1031163930892944e-01</leafValues></_>
        <_>
          <internalNodes>
            0 -1 9 3.8860784843564034e-03</internalNodes>
          <leafValues>
            -8.8686347007751465e-01 1.</leafValues></_></weakClassifiers></_></stages>
  <features>
    <_>
      <rects>
        <_>
          0 0 15 5 -1.</_>
        <_>
          5 0 5 5 3.</_></rects>
      <tilted>0</tilted></_>
    <_>
      <rects>
        <_>
          0 0 15 12 -1.</_>
        <_>
          5 0 5 12 3.</_></rects>
      <tilted>0</tilted></_>
    <_>
      <rects>
        <_>
          0 0 21 6 -1.</_>
        <_>
          0 3 21 3 2.</_></rects>
      <tilted>0</tilted></_>
    <_>
      <rects>
        <_>
          0 1 12 14 -1.</_>
        <_>
          0 1 6 7 2.</_>
        <_>
          6 8 6 7 2.</_></rects>
      <tilted>0</tilted></_>
    <_>
      <rects>
        <_>
          0 10 1 12 -1.</_>
        <_>
          0 14 1 4 3.</_></rects>
      <tilted>0</tilted></_>
    <_>
      <rects>
        <_>
          0 12 3 10 -1.</_>
        <_>
          1 12 1 10 3.</_></rects>
      <tilted>0</tilted></_>
    <_>
      <rects>
        <_>
          0 13 2 10 -1.</_>
        <_>
          1 13 1 10 2.</_></rects>
      <tilted>0</tilted></_>
    <_>
      <rects>
        <_>
          0 15 4 4 -1.</_>
        <_>
          2 15 2 4 2.</_></rects>
      <tilted>0</tilted></_>
    <_>
      <rects>
        <_>
          0 16 2 6 -1.</_>
        <_>
          1 16 1 6 2.</_></rects>
      <tilted>0</tilted></_>
    <_>
      <rects>
        <_>
          0 18 5 6 -1.</_>
        <_>
          0 21 5 3 2.</_></rects>
      <tilted>0</tilted></_>
    <_>
      <rects>
        <_>
          0 18 20 6 -1.</_>
        <_>
          0 18 10 3 2.</_>
        <_>
          10 21 10 3 2.</_></rects>
      <tilted>0</tilted></_>
    <_>
      <rects>
        <_>
          0 18 16 6 -1.</_>
        <_>
          0 20 16 2 3.</_></rects>
      <tilted>0</tilted></_>
    <_>
      <rects>
        <_>
          0 18 24 6 -1.</_>
        <_>
          0 20 24 2 3.</_></rects>
      <tilted>0</tilted></_>
    <_>
      <rects>
        <_>
          0 19 2 3 -1.</_>
        <_>
          1 19 1 3 2.</_></rects>
      <tilted>0</tilted></_>
    <_>
      <rects>
        <_>
          0 22 18 1 -1.</_>
        <_>
          6 22 6 1 3.</_></rects>
      <tilted>0</tilted></_>
    <_>
      <rects>
        <_>
          0 23 24 1 -1.</_>
        <_>
          12 23 12 1 2.</_></rects>
      <tilted>0</tilted></_>
    <_>
      <rects>
        <_>
          1 0 6 18 -1.</_>
        <_>
          1 0 3 9 2.</_>
        <_>
          4 9 3 9 2.</_></rects>
      <tilted>0</tilted></_>
    <_>
      <rects>
        <_>
          1 6 4 15 -1.</_>
        <_>
          3 6 2 15 2.</_></rects>
      <tilted>0</tilted></_>
    <_>
      <rects>
        <_>
          1 19 3 4 -1.</_>
        <_>
          1 21 3 2 2.</_></rects>
      <tilted>0</tilted></_>
    <_>
      <rects>
        <_>
          2 4 2 8 -1.</_>
        <_>
          2 4 1 4 2.</_>
        <_>
          3 8 1 4 2.</_></rects>
      <tilted>0</tilted></_>
    <_>
      <rects>
        <_>
          2 4 3 18 -1.</_>
        <_>
          2 13 3 9 2.</_></rects>
      <tilted>0</tilted></_>
    <_>
      <rects>
        <_>
          2 12 1 8 -1.</_>
        <_>
          2 16 1 4 2.</_></rects>
      <tilted>0</tilted></_>
    <_>
      <rects>
        <_>
          2 12 2 8 -1.</_>
        <_>
          2 16 2 4 2.</_></rects>
      <tilted>0</tilted></_>
    <_>
      <rects>
        <_>
          2 16 19 3 -1.</_>
        <_>
          2 17 19 1 3.</_></rects>
      <tilted>0</tilted></_>
    <_>
      <rects>
        <_>
          2 20 6 4 -1.</_>
        <_>
          2 22 6 2 2.</_></rects>
      <tilted>0</tilted></_>
    <_>
      <rects>
        <_>
          3 0 1 8 -1.</_>
        <_>
          3 4 1 4 2.</_></rects>
      <tilted>0</tilted></_>
    <_>
      <rects>
        <_>
          3 11 8 9 -1.</_>
        <_>
          7 11 4 9 2.</_></rects>
      <tilted>0</tilted></_>
    <_>
      <rects>
        <_>
          3 17 21 3 -1.</_>
        <_>
          3 18 21 1 3.</_></rects>
      <tilted>0</tilted></_>
    <_>
      <rects>
        <_>
          4 1 17 18 -1.</_>
        <_>
          4 10 17 9 2.</_></rects>
      <tilted>0</tilted></_>
    <_>
      <rects>
        <_>
          4 1 19 20 -1.</_>
        <_>
          4 11 19 10 2.</_></rects>
      <tilted>0</tilted></_>
    <_>
      <rects>
        <_>
          4 9 6 2 -1.</_>
        <_>
          4 9 3 1 2.</_>
        <_>
          7 10 3 1 2.</_></rects>
      <tilted>0</tilted></_>
    <_>
      <rects>
        <_>
          4 11 16 12 -1.</_>
        <_>
          4 11 8 6 2.</_>
        <_>
          12 17 8 6 2.</_></rects>
      <tilted>0</tilted></_>
    <_>
      <rects>
        <_>
          4 12 15 2 -1.</_>
        <_>
          9 12 5 2 3.</_></rects>
      <tilted>0</tilted></_>
    <_>
      <rects>
        <_>
          4 14 20 2 -1.</_>
        <_>
          14 14 10 2 2.</_></rects>
      <tilted>0</tilted></_>
    <_>
      <rects>
        <_>
          4 14 13 6 -1.</_>
        <_>
          4 16 13 2 3.</_></rects>
      <tilted>0</tilted></_>
    <_>
      <rects>
        <_>
          4 16 14 3 -1.</_>
        <_>
          4 17 14 1 3.</_></rects>
      <tilted>0</tilted></_>
    <_>
      <rects>
        <_>
          4 17 14 3 -1.</_>
        <_>
          4 18 14 1 3.</_></rects>
      <tilted>0</tilted></_>
    <_>
      <rects>
        <_>
          4 17 17 3 -1.</_>
        <_>
          4 18 17 1 3.</_></rects>
      <tilted>0</tilted></_>
    <_>
      <rects>
        <_>
          5 9 6 3 -1.</_>
        <_>
          8 9 3 3 2.</_></rects>
      <tilted>0</tilted></_>
    <_>
      <rects>
        <_>
          6 4 7 18 -1.</_>
        <_>
          6 13 7 9 2.</_></rects>
      <tilted>0</tilted></_>
    <_>
      <rects>
        <_>
          6 8 14 13 -1.</_>
        <_>
          13 8 7 13 2.</_></rects>
      <tilted>0</tilted></_>
    <_>
      <rects>
        <_>
          6 11 12 4 -1.</_>
        <_>
          12 11 6 4 2.</_></rects>
      <tilted>0</tilted></_>
    <_>
      <rects>
        <_>
          7 0 16 16 -1.</_>
        <_>
          15 0 8 16 2.</_></rects>
      <tilted>0</tilted></_>
    <_>
      <rects>
        <_>
          7 9 15 15 -1.</_>
        <_>
          7 14 15 5 3.</_></rects>
      <tilted>0</tilted></_>
    <_>
      <rects>
        <_>
          7 17 12 3 -1.</_>
        <_>
          7 18 12 1 3.</_></rects>
      <tilted>0</tilted></_>
    <_>
      <rects>
        <_>
          8 22 12 1 -1.</_>
        <_>
          12 22 4 1 3.</_></rects>
      <tilted>0</tilted></_>
    <_>
      <rects>
        <_>
          8 22 12 2 -1.</_>
        <_>
          12 22 4 2 3.</_></rects>
      <tilted>0</tilted></_>
    <_>
      <rects>
        <_>
          9 12 6 2 -1.</_>
        <_>
          12 12 3 2 2.</_></rects>
      <tilted>0</tilted></_>
    <_>
      <rects>
        <_>
          9 22 4 2 -1.</_>
        <_>
          9 23 4 1 2.</_></rects>
      <tilted>0</tilted></_>
    <_>
      <rects>
        <_>
          10 8 9 11 -1.</_>
        <_>
          13 8 3 11 3.</_></rects>
      <tilted>0</tilted></_>
    <_>
      <rects>
        <_>
          10 9 14 14 -1.</_>
        <_>
          10 9 7 7 2.</_>
        <_>
          17 16 7 7 2.</_></rects>
      <tilted>0</tilted></_>
    <_>
      <rects>
        <_>
          10 10 8 5 -1.</_>
        <_>
          14 10 4 5 2.</_></rects>
      <tilted>0</tilted></_>
    <_>
      <rects>
        <_>
          10 20 8 4 -1.</_>
        <_>
          10 22 8 2 2.</_></rects>
      <tilted>0</tilted></_>
    <_>
      <rects>
        <_>
          11 5 1 12 -1.</_>
        <_>
          11 9 1 4 3.</_></rects>
      <tilted>0</tilted></_>
    <_>
      <rects>
        <_>
          11 12 6 5 -1.</_>
        <_>
          14 12 3 5 2.</_></rects>
      <tilted>0</tilted></_>
    <_>
      <rects>
        <_>
          12 0 12 23 -1.</_>
        <_>
          18 0 6 23 2.</_></rects>
      <tilted>0</tilted></_>
    <_>
      <rects>
        <_>
          13 20 3 4 -1.</_>
        <_>
          13 22 3 2 2.</_></rects>
      <tilted>0</tilted></_>
    <_>
      <rects>
        <_>
          15 0 5 20 -1.</_>
        <_>
          15 10 5 10 2.</_></rects>
      <tilted>0</tilted></_>
    <_>
      <rects>
        <_>
          16 4 8 18 -1.</_>
        <_>
          20 4 4 18 2.</_></rects>
      <tilted>0</tilted></_>
    <_>
      <rects>
        <_>
          16 23 6 1 -1.</_>
        <_>
          19 23 3 1 2.</_></rects>
      <tilted>0</tilted></_>
    <_>
      <rects>
        <_>
          17 12 3 8 -1.</_>
        <_>
          17 16 3 4 2.</_></rects>
      <tilted>0</tilted></_>
    <_>
      <rects>
        <_>
          17 22 1 2 -1.</_>
        <_>
          17 23 1 1 2.</_></rects>
      <tilted>0</tilted></_>
    <_>
      <rects>
        <_>
          18 23 6 1 -1.</_>
        <_>
          21 23 3 1 2.</_></rects>
      <tilted>0</tilted></_>
    <_>
      <rects>
        <_>
          19 7 1 4 -1.</_>
        <_>
          19 9 1 2 2.</_></rects>
      <tilted>0</tilted></_>
    <_>
      <rects>
        <_>
          20 13 4 10 -1.</_>
        <_>
          22 13 2 10 2.</_></rects>
      <tilted>0</tilted></_>
    <_>
      <rects>
        <_>
          20 15 4 9 -1.</_>
        <_>
          22 15 2 9 2.</_></rects>
      <tilted>0</tilted></_>
    <_>
      <rects>
        <_>
          20 18 4 6 -1.</_>
        <_>
          22 18 2 6 2.</_></rects>
      <tilted>0</tilted></_>
    <_>
      <rects>
        <_>
          21 1 3 6 -1.</_>
        <_>
          22 1 1 6 3.</_></rects>
      <tilted>0</tilted></_>
    <_>
      <rects>
        <_>
          22 1 2 15 -1.</_>
        <_>
          23 1 1 15 2.</_></rects>
      <tilted>0</tilted></_></features></cascade>
</opencv_storage>
